#ifndef CONV2_WEIGHTS_H
#define CONV2_WEIGHTS_H

// Conv2: 16 filters, 8 input channels, 3x3 kernel
float conv2_w[16][8][3][3] = {
  {
    {{-0.111930f, -0.190831f, -0.160766f},{-0.242985f, -0.026765f, -0.223605f},{0.043338f, -0.099002f, -0.164270f}},
    {{-0.064106f, -0.054897f, 0.015126f},{0.164492f, 0.033627f, -0.068069f},{0.032032f, -0.197656f, 0.007227f}},
    {{0.091860f, -0.162779f, -0.136355f},{-0.222806f, -0.093121f, -0.093726f},{0.087741f, -0.083042f, 0.123030f}},
    {{-0.109881f, -0.075668f, -0.096953f},{0.153526f, -0.146725f, -0.141692f},{0.094876f, -0.351933f, -0.066454f}},
    {{0.089595f, 0.166618f, 0.113100f},{0.084548f, 0.054110f, -0.132936f},{-0.284611f, 0.061843f, -0.086517f}},
    {{-0.086522f, 0.025367f, 0.226238f},{-0.047526f, 0.120222f, 0.051367f},{-0.097180f, -0.079802f, 0.169888f}},
    {{0.063008f, 0.025030f, 0.069821f},{-0.111532f, -0.012737f, 0.196391f},{-0.234391f, -0.083475f, 0.086219f}},
    {{-0.046151f, 0.087467f, 0.288001f},{-0.188726f, 0.088064f, 0.248847f},{-0.058858f, 0.153328f, 0.077671f}}
  },
  {
    {{0.058647f, -0.039407f, -0.298208f},{-0.091115f, 0.021523f, -0.420890f},{-0.199175f, -0.242114f, -0.303185f}},
    {{0.000366f, -0.095260f, 0.059239f},{0.062339f, -0.147590f, 0.030620f},{0.130199f, 0.035820f, 0.007073f}},
    {{-0.135584f, -0.196784f, 0.030096f},{-0.195596f, -0.114553f, 0.297333f},{0.024652f, 0.108380f, 0.108337f}},
    {{-0.124550f, -0.003241f, -0.009942f},{0.073681f, -0.237944f, -0.050767f},{0.096666f, 0.127024f, 0.194217f}},
    {{-0.025888f, -0.068437f, -0.012287f},{-0.058414f, -0.046558f, 0.076443f},{0.138980f, 0.156657f, 0.121475f}},
    {{-0.016037f, -0.023214f, 0.071275f},{-0.152666f, -0.039104f, 0.109122f},{-0.017228f, -0.148059f, -0.092713f}},
    {{-0.029393f, -0.149293f, 0.157999f},{-0.077522f, -0.073593f, 0.075898f},{-0.028613f, 0.057211f, -0.171653f}},
    {{-0.069041f, 0.040436f, 0.126353f},{-0.039216f, 0.058183f, 0.191353f},{-0.041738f, -0.186423f, -0.179679f}}
  },
  {
    {{-0.041738f, -0.053192f, 0.209192f},{0.153778f, 0.008894f, 0.018747f},{-0.047024f, -0.069792f, -0.251809f}},
    {{-0.039025f, 0.161786f, -0.092219f},{-0.310552f, 0.031028f, 0.133376f},{0.117919f, 0.221973f, 0.261327f}},
    {{-0.109195f, -0.179248f, -0.199968f},{0.201456f, 0.046282f, -0.047068f},{0.283243f, 0.028690f, 0.024329f}},
    {{-0.067352f, 0.152537f, -0.134211f},{-0.169404f, -0.078009f, -0.223798f},{0.249356f, 0.267231f, -0.034823f}},
    {{-0.028840f, -0.201220f, -0.244367f},{-0.091607f, 0.161595f, -0.050205f},{0.112864f, 0.182362f, 0.166738f}},
    {{-0.131060f, -0.198145f, -0.106669f},{-0.179798f, -0.077075f, 0.063250f},{-0.134239f, -0.029174f, 0.170151f}},
    {{-0.086321f, -0.127546f, -0.062558f},{-0.210239f, 0.011643f, -0.028980f},{0.001386f, -0.024233f, 0.121012f}},
    {{-0.089156f, -0.218501f, -0.244044f},{-0.124336f, -0.093705f, -0.072236f},{-0.111129f, 0.116214f, 0.207905f}}
  },
  {
    {{0.108745f, 0.031246f, 0.098180f},{0.031791f, -0.031378f, -0.077525f},{0.118952f, -0.195637f, -0.022088f}},
    {{-0.124061f, -0.407250f, -0.182468f},{-0.267640f, -0.171126f, -0.038866f},{-0.223879f, -0.094719f, 0.020336f}},
    {{-0.119953f, 0.121811f, 0.110945f},{0.139669f, 0.234001f, -0.003148f},{0.446419f, 0.245796f, -0.209135f}},
    {{-0.017351f, -0.238773f, -0.019354f},{-0.225662f, -0.013652f, 0.131312f},{-0.318651f, -0.139621f, 0.140951f}},
    {{-0.156367f, -0.142028f, -0.011455f},{-0.123956f, 0.055222f, 0.128087f},{-0.152343f, 0.189672f, 0.071078f}},
    {{-0.062758f, -0.190502f, -0.037668f},{-0.198546f, 0.009915f, -0.166032f},{-0.035342f, -0.003389f, -0.055932f}},
    {{-0.102319f, -0.214782f, 0.071341f},{-0.157250f, 0.134440f, -0.008840f},{0.010612f, 0.159375f, 0.006089f}},
    {{-0.266686f, -0.230331f, 0.000795f},{0.018628f, 0.092452f, -0.055839f},{0.284147f, 0.018105f, -0.291029f}}
  },
  {
    {{0.073609f, -0.073959f, -0.010407f},{-0.042556f, -0.142106f, 0.018051f},{-0.364767f, 0.019717f, 0.012527f}},
    {{0.006251f, -0.006514f, -0.112765f},{-0.144274f, -0.188419f, -0.160706f},{0.034429f, -0.127626f, 0.066042f}},
    {{-0.257611f, 0.016231f, -0.277946f},{-0.024405f, -0.070327f, -0.273910f},{0.133083f, -0.054654f, -0.241974f}},
    {{-0.323871f, -0.113782f, -0.066779f},{-0.127162f, 0.119561f, -0.018942f},{0.322996f, 0.003961f, -0.054235f}},
    {{-0.069443f, -0.038605f, 0.028826f},{0.128039f, 0.075928f, -0.212649f},{0.277547f, 0.084509f, -0.252657f}},
    {{0.185182f, 0.058951f, -0.045899f},{0.133388f, 0.012316f, -0.003629f},{-0.075526f, -0.128431f, 0.020162f}},
    {{-0.032199f, 0.086552f, -0.038081f},{0.154892f, 0.130920f, -0.011214f},{-0.082512f, -0.095168f, -0.134285f}},
    {{0.210380f, 0.289979f, -0.141451f},{0.119688f, 0.138494f, -0.140458f},{-0.233423f, -0.294602f, -0.067394f}}
  },
  {
    {{0.042947f, 0.095723f, -0.162242f},{0.104247f, 0.001740f, -0.125351f},{0.125618f, -0.053768f, -0.164892f}},
    {{-0.018660f, -0.061189f, -0.015956f},{-0.242548f, 0.005647f, -0.107772f},{-0.205379f, 0.024255f, -0.046530f}},
    {{-0.158432f, 0.288370f, 0.239729f},{0.034051f, 0.234008f, 0.008483f},{0.039268f, 0.168335f, -0.063742f}},
    {{0.010245f, -0.196366f, 0.004355f},{-0.114825f, -0.350540f, -0.021955f},{-0.102265f, -0.178567f, -0.075292f}},
    {{0.011084f, 0.010537f, 0.066287f},{-0.237264f, 0.175731f, 0.037038f},{-0.221670f, 0.081140f, -0.083446f}},
    {{-0.168170f, -0.004051f, 0.098675f},{-0.177510f, 0.171896f, 0.166510f},{-0.238218f, 0.041166f, 0.018290f}},
    {{-0.045337f, 0.195175f, 0.118622f},{-0.139832f, 0.077800f, 0.027567f},{-0.227568f, 0.147976f, 0.044542f}},
    {{-0.111229f, 0.099301f, 0.009555f},{-0.150820f, 0.217649f, 0.044592f},{-0.020103f, 0.238525f, 0.265357f}}
  },
  {
    {{0.021113f, -0.273941f, -0.239751f},{-0.050125f, -0.205414f, -0.087635f},{-0.009070f, -0.134520f, -0.059595f}},
    {{0.036718f, -0.126221f, -0.123529f},{-0.016222f, -0.156334f, -0.260313f},{-0.248219f, -0.022819f, -0.139224f}},
    {{-0.316908f, -0.148202f, -0.299586f},{-0.161751f, 0.041880f, -0.169988f},{0.215775f, 0.172816f, -0.535361f}},
    {{0.002412f, -0.077094f, 0.163890f},{0.034029f, 0.009055f, 0.162324f},{0.004902f, -0.078977f, 0.096007f}},
    {{-0.015635f, 0.128708f, -0.047341f},{0.065321f, 0.144865f, 0.059998f},{-0.008673f, 0.123927f, -0.079672f}},
    {{0.109474f, 0.115039f, 0.163794f},{0.095967f, 0.089534f, -0.106141f},{0.003198f, 0.035747f, -0.110979f}},
    {{0.124592f, 0.125172f, 0.100378f},{-0.108230f, 0.175455f, -0.094239f},{-0.032126f, 0.135751f, -0.104300f}},
    {{-0.054630f, 0.040866f, -0.021280f},{0.010307f, -0.021501f, -0.161666f},{0.024604f, 0.070304f, -0.359593f}}
  },
  {
    {{-0.006229f, -0.176050f, -0.091826f},{-0.140925f, -0.170822f, -0.050889f},{-0.078801f, -0.314456f, -0.165994f}},
    {{-0.111751f, -0.328944f, -0.065527f},{-0.294302f, 0.007966f, 0.072035f},{-0.165221f, -0.008356f, 0.018558f}},
    {{-0.064310f, 0.086147f, 0.225294f},{0.000014f, 0.118273f, -0.138294f},{-0.107321f, -0.071964f, -0.204407f}},
    {{-0.112833f, -0.129958f, 0.035983f},{-0.007940f, 0.197066f, 0.158903f},{0.132695f, 0.244732f, 0.099280f}},
    {{-0.231051f, 0.029002f, 0.118548f},{0.015945f, 0.136192f, 0.154568f},{0.233199f, 0.191150f, -0.018509f}},
    {{-0.073617f, -0.015634f, -0.090245f},{0.003987f, 0.113469f, -0.009493f},{-0.017807f, -0.037202f, -0.148534f}},
    {{-0.013385f, -0.040816f, -0.037254f},{-0.014463f, 0.110462f, -0.006692f},{0.056793f, -0.073484f, -0.183795f}},
    {{-0.010568f, 0.069977f, -0.061039f},{-0.008507f, -0.146733f, -0.025461f},{-0.246399f, -0.250445f, -0.083787f}}
  },
  {
    {{-0.171509f, -0.062165f, -0.034004f},{-0.156722f, -0.142402f, -0.254290f},{-0.253476f, -0.392870f, -0.097192f}},
    {{0.121666f, 0.001292f, -0.108120f},{0.124116f, 0.048394f, -0.030735f},{-0.062024f, 0.067022f, -0.085565f}},
    {{0.034702f, -0.011771f, 0.142273f},{-0.283795f, 0.212627f, 0.143252f},{0.052439f, 0.216090f, 0.196066f}},
    {{0.403441f, 0.043533f, -0.205120f},{-0.005910f, -0.090381f, 0.222073f},{0.108631f, 0.282119f, 0.103098f}},
    {{0.030072f, -0.239696f, -0.075464f},{-0.174655f, 0.064734f, 0.183356f},{0.090560f, 0.141062f, -0.186885f}},
    {{-0.181180f, -0.030617f, 0.042154f},{0.138674f, -0.125174f, -0.005381f},{0.124046f, 0.028202f, -0.096911f}},
    {{-0.123920f, -0.101240f, 0.050296f},{0.007807f, -0.120114f, -0.028468f},{-0.007634f, 0.010791f, -0.224634f}},
    {{-0.112385f, 0.089212f, 0.145776f},{-0.106404f, 0.100016f, -0.061725f},{0.164759f, 0.106668f, -0.198606f}}
  },
  {
    {{-0.038810f, -0.131159f, -0.105504f},{-0.161369f, -0.136168f, -0.065995f},{-0.121373f, 0.124453f, 0.095878f}},
    {{-0.110329f, -0.126627f, 0.135250f},{0.137819f, 0.207979f, 0.120724f},{0.178552f, 0.214427f, 0.099634f}},
    {{0.003734f, 0.227680f, 0.188392f},{0.238656f, 0.267778f, -0.033755f},{-0.284011f, -0.064626f, 0.125450f}},
    {{-0.156231f, -0.120933f, 0.072899f},{0.039418f, 0.249158f, 0.125688f},{0.169066f, -0.046210f, 0.010448f}},
    {{-0.121539f, 0.138824f, 0.243251f},{0.152172f, 0.034330f, 0.037962f},{0.059075f, -0.226319f, 0.106600f}},
    {{-0.125275f, 0.069833f, -0.075569f},{-0.081052f, -0.138541f, -0.011950f},{0.016999f, -0.133640f, -0.112365f}},
    {{-0.100596f, -0.083319f, 0.031711f},{0.044501f, 0.049556f, 0.032118f},{-0.048903f, -0.181519f, -0.173018f}},
    {{-0.010040f, -0.098834f, -0.113951f},{0.107437f, -0.184384f, -0.091239f},{-0.118594f, -0.192341f, -0.213126f}}
  },
  {
    {{-0.039283f, -0.094944f, 0.073971f},{0.061974f, -0.101480f, -0.193804f},{0.051119f, 0.004446f, -0.027000f}},
    {{0.070933f, -0.112774f, -0.023631f},{0.135492f, 0.099708f, 0.276948f},{0.361120f, 0.297712f, 0.257632f}},
    {{0.063801f, -0.045175f, 0.015107f},{-0.125666f, -0.354463f, -0.084665f},{-0.211662f, -0.212993f, -0.209532f}},
    {{-0.002591f, 0.016163f, 0.091443f},{-0.063051f, -0.047605f, 0.004365f},{0.062403f, 0.027779f, 0.066862f}},
    {{0.045348f, -0.038736f, -0.121357f},{0.051040f, 0.084999f, 0.100183f},{-0.033315f, -0.140920f, -0.034838f}},
    {{-0.009681f, -0.201127f, -0.142818f},{-0.021234f, 0.083448f, 0.093922f},{0.055472f, 0.055264f, -0.043962f}},
    {{-0.131317f, -0.160756f, -0.251154f},{0.028339f, 0.008485f, 0.055368f},{-0.053590f, -0.044372f, 0.072155f}},
    {{-0.101616f, -0.224774f, -0.236993f},{-0.063139f, -0.009829f, 0.003639f},{0.108449f, 0.108414f, -0.024924f}}
  },
  {
    {{-0.164919f, -0.257971f, -0.138302f},{-0.308937f, 0.032353f, -0.037562f},{-0.270786f, -0.331178f, -0.293712f}},
    {{-0.211802f, 0.012296f, 0.009919f},{0.060213f, -0.184070f, 0.015657f},{0.067020f, 0.012654f, 0.176508f}},
    {{0.401808f, 0.309408f, 0.150254f},{0.179349f, -0.346954f, 0.138514f},{-0.052519f, -0.364452f, -0.130247f}},
    {{0.097069f, 0.250318f, 0.026202f},{0.056806f, -0.055754f, -0.123983f},{-0.004038f, -0.040366f, 0.060584f}},
    {{0.160271f, -0.079114f, -0.055391f},{0.097075f, -0.210800f, -0.047123f},{-0.031242f, -0.098795f, 0.151341f}},
    {{-0.025082f, -0.184152f, 0.069837f},{0.167906f, -0.014908f, -0.059274f},{0.067875f, 0.036923f, -0.004898f}},
    {{-0.048511f, -0.188093f, -0.033560f},{-0.031107f, -0.210508f, -0.114003f},{0.150676f, 0.069090f, -0.171697f}},
    {{0.192581f, -0.178355f, 0.297827f},{0.030843f, -0.203426f, 0.216343f},{0.242945f, 0.136345f, 0.032658f}}
  },
  {
    {{0.011733f, -0.009976f, -0.261894f},{-0.050284f, -0.125808f, -0.082799f},{0.115206f, -0.090760f, -0.115339f}},
    {{0.034942f, -0.108430f, -0.128712f},{0.094021f, 0.083899f, 0.154394f},{0.201984f, 0.075036f, 0.119827f}},
    {{-0.112568f, -0.002262f, 0.158351f},{-0.161828f, -0.427141f, -0.390453f},{-0.258069f, -0.277275f, -0.194548f}},
    {{-0.069300f, -0.126555f, 0.021341f},{0.084644f, 0.055473f, -0.060527f},{0.040492f, 0.077743f, 0.003149f}},
    {{0.083313f, 0.017517f, 0.017653f},{-0.036915f, 0.018947f, 0.174615f},{-0.201827f, -0.092225f, -0.118774f}},
    {{-0.091879f, -0.071624f, -0.069429f},{0.171648f, 0.007330f, 0.105138f},{-0.068509f, 0.177913f, 0.151985f}},
    {{0.097389f, 0.093486f, 0.012676f},{-0.008504f, 0.145646f, -0.000380f},{-0.213868f, -0.011129f, 0.058834f}},
    {{0.061751f, -0.086198f, -0.131383f},{-0.084815f, 0.018814f, -0.110419f},{-0.026750f, 0.090086f, 0.186467f}}
  },
  {
    {{-0.017417f, -0.226619f, -0.116647f},{0.094009f, 0.117371f, 0.075277f},{0.076998f, 0.113244f, -0.096672f}},
    {{0.293720f, 0.310599f, 0.211105f},{-0.018923f, 0.305354f, 0.117325f},{-0.216933f, -0.348323f, -0.251225f}},
    {{-0.117061f, 0.133898f, 0.251070f},{-0.232928f, -0.266710f, 0.233459f},{0.023689f, 0.162050f, 0.233084f}},
    {{0.010163f, 0.240906f, 0.398878f},{-0.168551f, 0.046324f, 0.050569f},{-0.078983f, -0.113551f, -0.301898f}},
    {{-0.029772f, 0.208432f, 0.136742f},{-0.386099f, -0.121863f, -0.199315f},{-0.111472f, 0.087658f, -0.041970f}},
    {{0.129581f, 0.040030f, -0.042749f},{0.002881f, -0.041244f, -0.144493f},{-0.335392f, -0.212974f, -0.100059f}},
    {{0.067462f, 0.007910f, 0.148881f},{-0.080197f, 0.032669f, -0.114796f},{-0.247938f, -0.227589f, -0.036039f}},
    {{0.128995f, -0.114576f, 0.051560f},{0.143976f, 0.062776f, -0.103121f},{-0.114260f, -0.110513f, -0.210100f}}
  },
  {
    {{0.056415f, 0.009308f, 0.003758f},{-0.156486f, 0.167824f, 0.266089f},{-0.118583f, -0.245239f, -0.022475f}},
    {{0.002121f, 0.173061f, 0.387674f},{0.132709f, -0.169233f, -0.216016f},{0.225620f, 0.189662f, 0.138580f}},
    {{-0.025934f, -0.200915f, -0.157525f},{-0.148094f, -0.200000f, -0.220214f},{-0.115777f, -0.058543f, -0.139896f}},
    {{0.081667f, -0.040046f, 0.066713f},{-0.022358f, -0.092612f, -0.264171f},{0.054258f, -0.070535f, 0.065689f}},
    {{0.018976f, -0.080197f, 0.028598f},{0.072620f, -0.031055f, -0.199587f},{0.134549f, 0.143397f, 0.116055f}},
    {{-0.244931f, -0.198677f, -0.122163f},{0.135919f, 0.112703f, -0.187471f},{0.172688f, 0.386615f, 0.240755f}},
    {{-0.258367f, -0.225772f, -0.030950f},{-0.018885f, -0.015888f, -0.278985f},{0.110378f, 0.216147f, 0.194519f}},
    {{-0.349821f, -0.092708f, 0.241415f},{0.129942f, -0.075804f, -0.342218f},{0.114492f, 0.215063f, -0.038450f}}
  },
  {
    {{-0.304253f, -0.066500f, -0.098506f},{-0.316457f, -0.133007f, -0.282876f},{-0.207869f, -0.330005f, -0.144919f}},
    {{0.113234f, -0.002640f, -0.103730f},{0.078815f, 0.142600f, 0.161466f},{0.212480f, 0.157673f, 0.132190f}},
    {{-0.030760f, -0.057044f, 0.107858f},{-0.477055f, -0.257717f, 0.065606f},{-0.420548f, -0.381423f, -0.319728f}},
    {{0.223023f, 0.025589f, 0.025792f},{-0.135900f, -0.153366f, -0.032995f},{-0.151870f, 0.126898f, -0.086748f}},
    {{0.159886f, 0.069866f, -0.124181f},{-0.120666f, -0.068242f, 0.136971f},{0.024614f, 0.009122f, 0.023687f}},
    {{0.144590f, -0.036090f, -0.018766f},{0.272438f, 0.063260f, -0.094200f},{0.101905f, 0.109254f, 0.122787f}},
    {{0.120236f, -0.129775f, -0.098235f},{-0.062437f, 0.047934f, -0.185335f},{0.077320f, -0.022884f, -0.095165f}},
    {{-0.129707f, -0.104288f, -0.013660f},{0.052541f, 0.054261f, -0.004120f},{0.148352f, 0.185162f, 0.024588f}}
  }
};

float conv2_b[16] = {0.004216f, -0.033370f, -0.012714f, -0.051135f, -0.108732f, -0.074141f, 0.026782f, 0.035035f, 0.082513f, 0.063899f, 0.077131f, 0.017817f, 0.032455f, 0.037929f, -0.012269f, -0.159445f};

#endif
